digraph Tree {
node [shape=box, fontname="helvetica"] ;
edge [fontname="helvetica"] ;
0 [label="x[3] <= 0.8\ngini = 0.666\nsamples = 105\nvalue = [34, 36, 35]"] ;
1 [label="gini = 0.0\nsamples = 34\nvalue = [34, 0, 0]"] ;
0 -> 1 [labeldistance=2.5, labelangle=45, headlabel="True"] ;
2 [label="x[2] <= 4.75\ngini = 0.5\nsamples = 71\nvalue = [0, 36, 35]"] ;
0 -> 2 [labeldistance=2.5, labelangle=-45, headlabel="False"] ;
3 [label="gini = 0.0\nsamples = 33\nvalue = [0, 33, 0]"] ;
2 -> 3 ;
4 [label="x[3] <= 1.75\ngini = 0.145\nsamples = 38\nvalue = [0, 3, 35]"] ;
2 -> 4 ;
5 [label="x[2] <= 5.35\ngini = 0.49\nsamples = 7\nvalue = [0, 3, 4]"] ;
4 -> 5 ;
6 [label="x[3] <= 1.55\ngini = 0.48\nsamples = 5\nvalue = [0, 3, 2]"] ;
5 -> 6 ;
7 [label="x[2] <= 4.95\ngini = 0.444\nsamples = 3\nvalue = [0, 1, 2]"] ;
6 -> 7 ;
8 [label="gini = 0.0\nsamples = 1\nvalue = [0, 1, 0]"] ;
7 -> 8 ;
9 [label="gini = 0.0\nsamples = 2\nvalue = [0, 0, 2]"] ;
7 -> 9 ;
10 [label="gini = 0.0\nsamples = 2\nvalue = [0, 2, 0]"] ;
6 -> 10 ;
11 [label="gini = 0.0\nsamples = 2\nvalue = [0, 0, 2]"] ;
5 -> 11 ;
12 [label="gini = 0.0\nsamples = 31\nvalue = [0, 0, 31]"] ;
4 -> 12 ;
}